solver_type L2R_L2LOSS_SVC_DUAL
nr_class 2
label 0 1
nr_feature 479
bias -1.000000000000000
w
-0.008518993466117290 
-0.6758377120981692 
-0.007792731371321856 
0.6989401015974972 
0 
-0.2367074768473301 
1.474510624281839 
-0.4922269572942341 
-0.6021940567801289 
0 
0 
0 
0.01547569233676768 
-0.007792731371321856 
-0.3606807046982692 
0.2589513011419823 
0.1444442215819264 
0.6174246381807070 
-0.6631231791107264 
0.8232505090048582 
-0.1087821354566515 
0 
0 
0.3446446152587961 
0.04463086552397556 
0.08389356361936216 
0.1580684561908252 
0 
0.06950117772064260 
0 
0.02473843178930313 
0 
0.0002078373921655081 
0.04828723830242434 
-0.02194106338170374 
0.3106764515838775 
0.1461360447582324 
0 
0 
0 
-0.2158309860378921 
0.3190059536889490 
0.03590055814800530 
0.1429053573883965 
0.1809846912877333 
-0.09370952143305078 
0.1529947316136877 
0 
-0.3078038434702035 
0 
-0.01205575262910901 
-0.03609713668164408 
-0.06615596467313073 
-0.3328482463493364 
-0.1871773968304114 
-0.1095742495451132 
-0.2312228483310833 
-0.1613897538813943 
-0.8065277008378338 
0 
0.001685610050886716 
0.3826837981134575 
0.02973502272460866 
-0.2294935670306674 
0 
0 
0.1001151447731405 
0.04338649346713060 
0 
0.04259758187367352 
0 
0 
0 
0.04853320226907884 
0 
0 
0.1224273072870287 
0.05963480063878214 
0.03381498612593823 
0 
0 
0 
0 
0 
0 
0 
0 
0 
0 
0 
0 
0 
0 
0 
0 
0 
0 
0 
0 
0 
0.05037208742093578 
-0.09907195176479755 
0 
0.4574824962513595 
0 
-0.1119412611078585 
1.443783588946846 
-0.5051128450398070 
-0.7684166450070600 
0 
0 
0 
0 
0 
-0.4856099252221590 
0.1010005340805507 
0.2895697730651778 
0.2108088164293743 
-0.3606493602480590 
0.6091919516820412 
-0.04183529813931296 
0 
0 
0.6168277232117084 
0.01867366595597048 
0.1462616944674107 
0.3572636204869213 
0 
0.1077473459628192 
0 
0.03988210723981733 
0.08981964877386431 
0 
0.06584435781105424 
-0.04205092197500518 
0.1536815017978960 
0.04889162761134828 
0 
0 
0 
0.1483844528219076 
-0.007616893503569249 
0.04397257187778826 
0.03831407776766577 
0.001078715772598248 
-0.05967647627042488 
0.2817642502976632 
0 
-0.1356929917206738 
0 
0.02669663960360531 
-0.04635247287507037 
0 
0.002676880711819026 
-0.1712734472157092 
-0.3226851717956427 
0.5897609242323313 
0.1310437869941994 
-0.7117647045384964 
0 
-0.1261189590624456 
-0.5127687118664532 
-0.08460221231598075 
-0.4057980221148657 
0 
0 
-0.08450775370387396 
0 
-0.01875171054744884 
0.02005486618032913 
0 
0 
0 
-0.04318402528389413 
0 
0 
0.1384838326818382 
-0.1009609755410475 
0 
0 
0 
0 
0 
0 
0 
0 
0 
0 
0 
0 
0 
0 
0 
0 
0 
0 
0 
0 
0 
0 
0.0006333291886249395 
0.1009787987111032 
0 
-0.06227410669308713 
0 
-0.1693368319123850 
0.1303222182852546 
0.1514458495115681 
0.3703354329376936 
0 
0 
0 
0 
0 
-0.1745984303538548 
0.1518863660290657 
-0.2705667172349886 
-0.07510495393333330 
0.002787106084562804 
0.1495146369408305 
0.003843059626391424 
0 
0 
-0.1131378940358260 
0.1268524345735361 
-0.1065373583065966 
-0.002535064172229490 
0 
0.05473972813714995 
0 
-0.01271177337440057 
-0.1049011989575387 
0 
0.05237099489192312 
-0.1158445130211102 
-0.01387666014813433 
0.04053290264360038 
0 
0 
0 
0.03736183818288980 
0.1492144418239660 
0.07012672870606282 
0.05072423461481114 
0.02125147577485088 
-0.05178380583913604 
0.01621841846578595 
0 
0.01112108689792074 
0 
0.07922335359295875 
0.02116918777450878 
0 
0.02476858316065415 
0.03854174093464410 
-0.2452232778009491 
0.2397596855735986 
0.07624044083790338 
0.004830991629637856 
0 
0 
0.01024711860889959 
0.04621672968372011 
-0.06252417299264948 
0 
0 
0.1456299294788073 
0.02288538936859772 
-0.04332311401745357 
0 
0 
0 
0 
0.01295849252768163 
0 
0.003022978089620108 
0.02219763340399472 
0.09650776754670487 
0.03041601751428607 
0 
0 
0 
0 
0 
0 
0 
0 
0 
0 
0 
0 
0 
0 
0 
0 
0 
0 
0 
0 
0 
-0.03176435092671530 
0.1240110633343860 
-0.02701823443583468 
0.01736259795168032 
0 
-0.1645207940894693 
0.06408781402473461 
0.1565381832410799 
0.3483541889734480 
0 
0 
0 
0 
-0.02701823443583468 
0.08424870896608175 
-0.04299677380578188 
-0.2164576147872641 
-0.0006618645763231045 
0.06650822656842999 
0.1233478620561687 
0.009967020437141821 
0 
0 
-0.1445502981960293 
0.04090867267394632 
0.02571004110863974 
0.06986731758617587 
0 
0.1154057620971631 
0 
0 
-0.008513294974710393 
0.02562406272981668 
-0.03613638475045256 
-0.04438277877762395 
-0.1738410009241351 
-0.05320113168737513 
0 
0 
0 
0.003490620119620799 
0.3351703817462626 
0.06510986664015571 
0.08110292623118359 
-0.05336676920120688 
-0.07711792516997089 
-0.1444803176385255 
0 
0.04001241863821065 
0 
0.07955184238830953 
0.04602376831070933 
0 
0.02467409534994740 
-0.0005904782189081470 
-0.1297636247506326 
-0.07368950568312135 
-0.07778363954464000 
0.1469012793642317 
0 
0 
0.2060153424230336 
0 
0.1154249972796878 
0 
0 
0.08217403073176285 
0 
-0.09196740383541517 
0 
0 
0 
0 
0.01098241635964305 
0 
0.01056903850076453 
-0.1019215751531732 
0.06924204558595289 
0.01521162732104082 
0 
0 
0 
0 
0 
0 
0 
0 
0 
0 
0 
0 
0 
0 
0 
0 
0 
0 
0 
0 
0 
0.02671186818618003 
0.3830142789384182 
-0.003414387345050237 
0.3674578375604641 
0 
-0.1860251127799955 
0.07741003442559224 
-0.03640910008372378 
0.1757844856003641 
0 
0 
0 
0 
-0.003414387345050237 
0.3108631684696621 
-0.09818205956940795 
-0.04431273301191671 
-0.2021134867341966 
0.01630835059641178 
-0.08024157453857673 
0.04775225074396372 
0 
0.02729533038231984 
-0.01809562464441372 
-0.04881539584042739 
0.09547549336370095 
0.1846587882893558 
0 
-0.08811265091291812 
0 
0.03639331560226396 
0.06518740398057371 
-0.007765229396825450 
-0.2396809586584931 
-0.1163087904888655 
0.1271904325297723 
0.09227149916355151 
0 
0 
0 
0.004041583431737600 
0.002989974528910677 
0.09612703252846375 
-0.07816363673734168 
-0.03496346562260393 
0.02773511272510525 
0.1166315749651443 
0 
0.06891501202825690 
0 
0.01572912366435306 
-0.04844654826961924 
0 
-0.05412412910957572 
-0.2402981138441415 
0.06843187272599155 
0.2691788800228300 
-0.08762908096099789 
0.1223655641109435 
0 
0 
0.02973211085172020 
0.02518679736390429 
-0.05850250467328933 
0 
0 
-0.03232801673910252 
0 
0.004949319619096545 
0 
0 
0 
0 
0.05297168693409237 
0 
0.03060710366769487 
-0.03413322531382475 
0.04703117189188563 
0.02441541333283912 
