solver_type L2R_L2LOSS_SVC_DUAL
nr_class 2
label 1 0
nr_feature 582
bias -1.000000000000000
w
0.001423394800089468 
0.3056677571126166 
0.08579823337043817 
-0.7308422410136238 
0 
0.2322413070175005 
-1.533414044290520 
0.8779484425791282 
0.4584464715745066 
0 
0 
0 
0.2279616549064118 
0.02736009184587517 
0.3525106757277098 
-1.469321316728063 
-0.5189471894881297 
-0.8152131067597792 
0.2822030167423534 
-1.108795856343457 
0.1897517707571420 
0 
0 
-0.6326521050333449 
-0.1307315634447581 
-0.3167101027987137 
-0.4584894753508010 
0 
-0.1860524808647005 
0 
-0.07744558595534569 
-0.09203763975626558 
0 
-0.1154139928613030 
0.01749533008692276 
-0.08416417710246485 
-0.1975525012182064 
0 
0.2656021661046866 
0 
0.4403359079451100 
-0.5037740653809569 
0.2612914474852530 
-0.06989876083243580 
-0.1715935268746645 
-0.1794129185274249 
0.1973854105046763 
0 
0.3315402903077876 
0 
0.1487208774910081 
-0.05817484392332593 
0.02790570049165244 
0.2816762241208051 
0.4637633747672932 
-0.1001950702215414 
0.3293018800518015 
0.2019014004380684 
1.302302954915170 
-0.02247243917795638 
0 
-0.06347872832897710 
0.1373058982426293 
0.004396087603639864 
0 
0 
-0.06566704794453332 
0 
-0.001258906634627947 
-0.01960317174635557 
0 
0 
0 
0.1189129969172028 
0 
0 
-0.2053082124138165 
-0.1961462215474748 
-0.2382188867364614 
0.1014597752396305 
0.9191792262326657 
0.8586439140865709 
0 
0 
0 
0 
0 
0 
0 
0 
0 
0 
0 
0 
0 
0 
0 
0 
0 
0 
0.07604293552794196 
0.4054073409633772 
0.04696258544709211 
-0.8572350304784093 
0 
0.03272168287802629 
-1.286330199875550 
0.7494928710305024 
0.9543232182477432 
0 
0 
0 
0 
0 
0.08126839520458357 
-1.022896569827864 
-1.512053114771022 
-0.3335842169728487 
0.5798302048027463 
-0.7643564998297532 
0.05159876948074538 
0 
0 
-0.9204866681160147 
-0.03759161615334943 
-0.2995416804529780 
-0.5768512231587983 
0.1614571928339567 
-0.02245315233176386 
0 
-0.04725094478597220 
-0.1232997658928496 
0 
-0.2973290051896427 
-0.008394825025634350 
0.3270341262306635 
-0.08623677770033161 
0 
-0.08876589918049438 
0 
0.08113328517240821 
-0.4041671791632983 
0.2347068472525057 
0.08613057003791500 
-0.01177705706859566 
-0.01057778038253014 
-0.1299879193838349 
0 
0.1032618882387422 
0 
-0.05533022725047000 
0.03610799608135640 
-0.002203258351999408 
-0.09462680734579140 
-0.07351318338983431 
0.3117141431445557 
-0.2649675092152540 
-0.03324417560254768 
1.217495349079128 
-0.005744285461985918 
0.08090206862447870 
0.6587349497796482 
0.4239979798981224 
0.6860347719799391 
0 
0 
0.05258645913579604 
0.03092390635995586 
0.1489233700411872 
-0.05445638515153607 
0 
0 
0 
-0.09558882448702197 
0 
0 
-0.1609884293362178 
-0.1377294946636849 
0.09144663799635890 
0.1582675676504167 
0.6861981430201074 
1.026174984351640 
0 
0 
0 
0 
0 
0 
0 
0 
0 
0 
0 
0 
0 
0 
0 
0 
0 
0 
-0.07748245929384937 
0.1076608901631190 
0.1151563457587821 
-0.1228295142282635 
0 
-0.09999874895305476 
-0.1426962370426814 
0.02947859807964828 
-0.09655115082254515 
0 
0 
0 
0 
0 
0.03505884483518085 
-0.3131564231577479 
0.6196461264726881 
-0.006767722653463704 
-0.01416549221640465 
-0.1035145101562640 
-0.04796763470405197 
0 
0 
0.1823075443324443 
0.08014606860589514 
0.1126102738652811 
-0.07255198779863391 
0.07850050239563014 
-0.04319134729300490 
0 
0.1133970095155516 
0.1220555275153208 
0 
0.1208827617472470 
0.06218274536845819 
-0.2056032979062509 
-0.1605145203109393 
0 
0 
0 
-0.02326235732930416 
-0.07024428419846729 
-0.2278635989954026 
-0.008080697487411569 
-0.05516826716637056 
-0.03454107377000620 
0.01615997304980097 
-0.03764048337247546 
-0.05317811361995924 
0 
-0.1485625021518083 
0.03567545705226386 
0.03478725420040154 
0.05575262012712693 
-0.03363277917592154 
0.1685182667740098 
-0.1774145660431576 
-0.04647546098429432 
0.1697911653126395 
0.008121123455955600 
0.004399774092792641 
-0.02159358826533341 
0.1314502915161218 
0.1606639603012471 
0 
0 
-0.1452904890990044 
-0.006176825950072580 
-0.01840179274666672 
-0.07111573480283412 
0 
0 
0 
-0.08938660392402260 
0 
-0.02310871832464160 
-0.08250812447387089 
-0.08573791561975148 
-0.02080742770731598 
-0.03823033979817002 
-0.06732168057813431 
-0.07637163256757193 
0 
0 
0 
0 
0 
0 
0 
0 
0 
0 
0 
0 
0 
0 
0 
0 
0 
0 
0.01638212514054290 
-0.1602904616838565 
0.03462155703763903 
-0.1136146988886778 
0 
-0.04531059635981233 
-0.03735553746184862 
-0.1082665100628340 
-0.04751491437683230 
0 
0 
0 
0 
0.01916086347702967 
-0.07376985797042294 
-0.2468556765681784 
0.8591606409185866 
-0.1636767508274336 
0.2403128320661806 
0.04165823239482371 
0.07854907406956918 
0 
0 
0.06365263594204626 
0.1668163334934664 
0.1558033217161574 
-0.1709771254435756 
0 
-0.1080003589607949 
0 
-0.08714100521160370 
-0.02730425134354775 
-0.01807093472099731 
0.2040422123262663 
-0.05893220571867648 
-0.02297237562210244 
-0.01196559625532307 
0 
-0.02501787731666716 
0 
0.03821806430813046 
-0.1991730944693989 
-0.02227742251312314 
-0.08950739805522581 
-0.0005392620369443620 
0.0005777728173196779 
0.08578011557432022 
-0.04319736136125271 
-0.2562703866792141 
0 
-0.1611973278637335 
-0.05731507893137645 
0.02190945480559331 
-0.1560993169421459 
-0.01161967705080810 
0.03953210285480753 
0.2144445291289481 
0.06828053143566490 
-0.06470733857949115 
-0.003667392342173327 
-0.01331364592536830 
0.01657524829500624 
-0.03263991751924368 
-0.1046601243949048 
0 
0 
-0.04531965646434515 
-0.03336374626614785 
0.07186566812698889 
0.08679320040821431 
0 
0 
0 
-0.02118711253780958 
0 
0.03262340111592822 
-0.05930846102585165 
-0.05487486177621118 
-0.05221270751186491 
0.002967635626699848 
-0.03698268406164945 
-0.2920465844468134 
0 
0 
0 
0 
0 
0 
0 
0 
0 
0 
0 
0 
0 
0 
0 
0 
0 
0 
0.1218930363284790 
-0.1618076174093120 
0.07207871525055556 
-0.2436563656169921 
0 
-0.006344650601240919 
0.001110400998744644 
0.02419953707592563 
-0.1413934118258509 
0 
0 
0 
0 
0 
-0.1818620562819352 
0.06566735768377256 
0.05271938691781490 
0.02372721113923086 
0.06151007315217096 
0.1773455615484511 
-0.09607393961877175 
0 
0 
-0.1493521832017175 
0.3151968328944149 
0.06652924402749422 
-0.05102383913499214 
0 
-0.02558701697147525 
0 
-0.06779698902083828 
-0.1369045462380928 
0.1115905868655157 
0.04544929221314099 
-0.03825058761962436 
0.02915100809598473 
-0.1181375347036171 
0 
-0.009102737817591052 
0 
-0.09191988384989037 
0.1468124993587598 
-0.09803728284927449 
-0.08149448700573719 
0.0001802959003796845 
0.02645490754322943 
0.07950221338694170 
-0.03165518784705819 
0.02918903091298323 
0 
0.03547048638962018 
-0.2145783345556399 
-0.001363236244230363 
-0.07893408974695622 
0.04003197839702792 
0.05527395280989730 
-0.1189480271532062 
0.1039155245607130 
-0.1022750071484560 
-0.02629890190676735 
-0.01470177452588022 
0.002027668482635729 
0.07166320156132018 
0.2574510966367660 
0 
0 
0.1116239901504685 
0.01941584392562531 
0.01725011211213474 
-0.003305933557110188 
0 
0 
0 
0.02180962993394886 
0 
0.004798705794162542 
-0.08398599416641758 
-0.08702995031211135 
-0.1105068886333464 
0.02278623574069624 
-0.06591828562085769 
-0.2035050061188680 
0 
0 
0 
0 
0 
0 
0 
0 
0 
0 
0 
0 
0 
0 
0 
0 
0 
0 
-0.08250346379358780 
-0.01787601983347912 
0.06799271910621658 
-0.5541536915120397 
0 
-0.01561690180892542 
-0.5114860915971607 
-0.2449681979605842 
-0.2975443321551818 
0 
0 
0 
0.2056692339570566 
0 
0.1759261232099553 
0.4627812940711760 
-0.7224568372132866 
-0.02829819314972867 
0.04602979204142169 
-0.2132588020526991 
0.006243788453814445 
0 
0 
0.1015677377495061 
-0.07099161346940236 
-3.949042004848871e-05 
0.01063029021188916 
0 
-0.09804047886026912 
0 
-0.07450634985574583 
-0.04187962476662727 
0 
0.04887699067488587 
0.09125323642934036 
-0.2435170001846001 
0.002866266815037740 
0 
0.07854233025174110 
0 
-0.01437857413232882 
-0.1118359124819559 
-0.1696104143423093 
-0.2570760878074008 
0.05601398200451146 
-0.06585164280274991 
-0.2578679851648265 
-0.001890255213983149 
0.08513701535591187 
0 
-0.05724665432234956 
-0.09761240316452309 
-0.01192631516847744 
0.05041205138019643 
0.3601861777375561 
-0.2723667180808521 
-0.3196133581671848 
0.06009125504267663 
0.4525554665392123 
0.02716376463179641 
0 
-0.1273911867906772 
-0.1012574744895761 
0.02348918662893811 
0 
0 
-0.2070182451265873 
0 
-0.02038038091822737 
-0.007566555286397207 
0 
0 
0 
0.006981544725437116 
0 
-0.03462836402286738 
-0.08823674413926708 
0.05975861656779178 
0.004831926081089202 
0.02570478778505657 
-0.2389696735913274 
-0.04277601777873533 
