solver_type L2R_L2LOSS_SVC_DUAL
nr_class 2
label 1 0
nr_feature 601
bias -1.000000000000000
w
-0.05249480243608507 
0.3314519521851355 
0.08704185671025155 
-0.7442494046754073 
0 
0.2165137973035063 
-1.371717753244483 
0.6143783592576900 
0.3507362549800938 
0 
0 
0 
0.2095439204334270 
0.02390719770833666 
0.3546513575735540 
-1.279185000839585 
-0.3291033705257819 
-0.7240266395091689 
0.1480811538243488 
-1.015838778212247 
0.1267905834672819 
0 
0 
-0.3536221096160896 
-0.1283552153979378 
-0.2722557210893379 
-0.3638137060438105 
0 
-0.1335039390038915 
0 
-0.06021472502627753 
-0.1060494048198222 
0 
-0.04221150191763632 
0.1645525037721042 
-0.1728519765980706 
-0.2081178093541096 
0 
0.3240943367769162 
0 
0.5039325230876265 
-0.5704433728705384 
0.1788740798579034 
-0.07325763922538360 
-0.2248093592874760 
-0.1548762547428860 
0.2349863929471815 
0 
0.3450035043361162 
0 
0.2776118413348160 
-0.08138164499311529 
0.03349543042369619 
0.3415536295240603 
0.4556539589332207 
-0.1218967488301670 
0.4225393261087327 
0.2229852902174433 
1.156025200381779 
-0.003460559512755951 
0 
-0.4110165357954562 
-0.009134113738986056 
-0.2210041448555246 
0 
0 
-0.09901448022609433 
0 
-0.04254866663655282 
-0.01990649361955955 
0 
0 
0 
0.1512418041781941 
0 
0 
-0.2122923894974302 
-0.1748200284277548 
-0.2928353777688754 
0.04937974448180264 
0.6704031234490823 
0.6592439274367035 
0 
0 
0 
0 
0 
0 
0 
0 
0 
0 
0 
0 
0 
0 
0 
0 
0 
0 
0.1234822983669669 
0.3475871249513757 
0.005290559791815855 
-0.8649696844060369 
0 
0.007168508229773911 
-1.516458301411588 
0.7618009460642281 
0.9978594060079330 
0 
0 
0 
0 
0 
0.03368910418809104 
-1.036463751660145 
-1.558177534454729 
-0.2994780089258581 
0.5599765421393478 
-0.8132402603196373 
0.04102812131377647 
0 
0 
-0.9325305891743724 
-0.06564461824805103 
-0.3391195921235043 
-0.5977231054152392 
0.1225978932594458 
-0.02381977907470643 
0 
-0.07530896526992538 
-0.1743707450133402 
-0.0004298782968587818 
-0.3261615133036833 
-0.1511473404225122 
0.3247504969693845 
-0.07651768288182895 
0 
-0.05365221207275560 
0 
0.1120170941279533 
-0.3125428655322599 
0.2262286164224321 
0.09276260580013455 
-0.004004204673058901 
-0.04396422980346601 
-0.1339466514539507 
0 
0.1098463865339793 
0 
0.006363103794378072 
0.02053032883931068 
-0.005812098778249306 
-0.1191961611276263 
-0.03403614110305172 
0.2721976446244108 
-0.2132284276484868 
-0.001879046660263218 
1.265316845602951 
-0.008607084798662023 
0.1065523993450430 
0.7176432825999007 
0.4014405624477481 
0.6483392698818010 
0 
0 
0.05225392454780227 
0.04453214711332004 
0.1338988307775315 
-0.04435936775206845 
0 
0 
0 
-0.07360932285429322 
0 
0 
-0.2179954999493005 
-0.1487702977731372 
0.08107570855077990 
0.1342286542192085 
0.7242314434908989 
1.044927408096961 
0 
0 
0 
0 
0 
0 
0 
0 
0 
0 
0 
0 
0 
0 
0 
0 
0 
0 
-0.08018153540279228 
0.2535324110544626 
0.06486957734934135 
-0.1769301096716767 
0 
-0.09435083999054200 
-0.1392964053949696 
-0.04011013465927984 
-0.1860132158604322 
0 
0 
0 
0 
0 
0.08459094073159935 
-0.3454548568349786 
0.4320726559247324 
-0.05976343888935831 
-0.06785708826532057 
-0.1379690303256069 
-0.05136310676494615 
0 
0 
0.2070903421067674 
0.02342172207187828 
0.1510092920670957 
-0.03939295761950143 
0.07939738048916016 
-0.02918448744469204 
0 
0.1382678429975418 
0.1054336466740155 
0 
0.05267869973062924 
0.07477198060622150 
-0.1671837340979606 
-0.1641374781248108 
0 
0 
0 
-0.02164674590767370 
-0.09496290438547322 
-0.2071567631487006 
-0.007305772216518996 
-0.03435971215755659 
-0.06086906923415102 
0.04628032251947675 
-0.02419787267635885 
-0.05655502108218337 
0 
-0.1580844038430256 
0.03679366309611556 
0.01316349821900112 
0.08331608240947677 
-0.06026824939159355 
0.1148410686848211 
-0.2384545505420241 
-0.05052729567551253 
0.1900366452839190 
0.005707983379847758 
0.008183532962392230 
-0.002167705008639144 
0.1092029796704734 
0.2213599635190566 
0 
0 
-0.08256720099531335 
-0.01322574527275882 
-0.04393276523376687 
-0.04731561995914006 
0 
0 
0 
-0.1089145769463832 
0 
-0.04229581174026306 
-0.1169546893020181 
-0.04275914322621578 
-0.01325207236920731 
-0.04020250024853266 
-0.06186847034219904 
-0.05730052667494044 
0 
0 
0 
0 
0 
0 
0 
0 
0 
0 
0 
0 
0 
0 
0 
0 
0 
0 
0.07422867369783796 
-0.1905852889510955 
0.01187314578768129 
-0.06608189459252528 
0 
-0.06238726329071984 
-0.06981125726276383 
-0.1986231814718617 
-0.1867256267860860 
0 
0 
0 
0 
0.01122136217723654 
-0.04093590172634042 
-0.2526737066723774 
0.7276032459500676 
-0.1925877442849404 
0.1704070474061962 
0.01456535478089654 
0.03939937097923023 
0 
0 
0.06122223915296956 
0.06034011691734513 
0.1793851713979415 
-0.1128484758250709 
0 
-0.09949541213110041 
0 
-0.08572088579064271 
9.154856323651689e-05 
-0.05516632343125926 
0.1967149046965013 
-0.09709218470820612 
-0.08310911054739678 
0.009351309662824126 
0 
-0.02956110929588275 
0 
0.05539845296132330 
-0.2523882189926284 
0.04514318178875956 
-0.07039424536178130 
0.02061650057627512 
0.002843640040001479 
0.02551380592182932 
0.001348632192058310 
-0.2771505195086230 
0 
-0.09526480829546784 
-0.07019000069358826 
0.02450532315490340 
-0.1497142151212185 
-0.003570534250541515 
0.1027932150694146 
0.2278493600173913 
0.0002576445914262010 
0.01027744186361722 
-0.001216965330580527 
-0.01784699849939643 
0.06347341816054590 
-0.04239260384511476 
-0.1909689897146993 
0 
0 
-0.08842561252837935 
-0.03353183788029866 
0.02934113141535697 
0.08983403259553695 
0 
0 
0 
-0.02614028575599611 
0 
0.01266728457382152 
-0.05816070721933917 
-0.08273419775684444 
-0.05001691488781223 
0.01032881392837903 
-0.0008590184090039796 
-0.2040921018175434 
0 
0 
0 
0 
0 
0 
0 
0 
0 
0 
0 
0 
0 
0 
0 
0 
0 
0 
0.1180073286397770 
-0.1746046991533541 
0.007962426481019920 
-0.2653765580266975 
0 
-0.05863435268358173 
-0.1361332054587059 
0.07617356844155701 
-0.1900970594735985 
0 
0 
0 
0 
0 
-0.2440921392757579 
0.06582793057392884 
0.1026224110893303 
0.05471440900898737 
0.1298032831241554 
0.07233569240537975 
-0.09816416653693813 
0 
0 
-0.1532003815938830 
0.2691560967463078 
0.007262070748570573 
-0.1251088836535879 
0 
-0.06769934929674504 
0 
-0.06692679815633829 
-0.08609586274059640 
0.09639632619631366 
0.02814013269770757 
-0.1243365704543255 
0.1060564205622643 
-0.1124819751135869 
0 
-0.01255949983064086 
0 
-0.04787692536274947 
0.1958209255671084 
-0.1248056652741940 
-0.03549726953871697 
0.04269819141392887 
-0.01419124495548695 
0.03654792636441725 
-0.02885746046637689 
-0.06302306468163082 
0 
0.02393383681563783 
-0.1850415349037339 
0 
-0.07347745018327353 
0.06920244276035856 
0.009452411733400118 
-0.04506129697630527 
0.07615055189319775 
-0.07669200737778654 
-0.008079904545080686 
-0.01675636733107558 
-0.03184884652391033 
0.04352608770858055 
0.2450504162902827 
0 
0 
0.1193788052967832 
0.007187199625855133 
0.03922292886054452 
0.01086169785709056 
0 
0 
0 
0.03783854913602304 
0 
0.01214716523455021 
-0.08022846713759302 
-0.08844033066577422 
-0.1430349279109791 
0.01396100160400361 
-0.1146266832730979 
-0.2131950167796827 
0 
0 
0 
0 
0 
0 
0 
0 
0 
0 
0 
0 
0 
0 
0 
0 
0 
0 
-0.08607218976628234 
-0.1666050448543748 
-0.005956069639049282 
-0.5205892180087948 
0 
-0.1317393213193121 
-0.3165442536451886 
-0.4384216275012310 
-0.6550637147255542 
0 
0 
0 
0.1061059671411388 
-0.004518366287408036 
0.05043284322302005 
0.8620998869046905 
-0.6249485548820060 
0.1915638247469538 
-0.1189595584939048 
0.03120332187085214 
-0.003640201646832014 
0 
0 
0.1678972790896498 
-0.04779811282515029 
0.05033338732440634 
0.03783242197359092 
0 
-0.06043904771967638 
0 
-0.08120740602568347 
-0.05304563772754773 
0 
0.1184640853967978 
0.1070779010028048 
-0.2640327837440203 
0.06351114601670443 
0 
0.04833418277217628 
0 
-0.1499553863219149 
0.08261811663950969 
-0.2011390372044429 
-0.3462037286083884 
0.1510250295334127 
-0.04929280871398209 
-0.2435838838679313 
-0.0005358267843333476 
-0.1143122447211148 
0 
-0.07048631905023504 
-0.07256840429339456 
-0.02664244134437465 
-0.03885080448180604 
0.1959014997568888 
-0.2631449052657323 
-0.3796800635570304 
0.001810243825818902 
0.04471077493142400 
0.03273286693912736 
0 
-0.1395517164277867 
-0.02480844083798497 
-0.1166237520923643 
0 
0 
-0.1355706165254380 
0 
0 
0.04344932231092682 
0 
0 
0 
-0.02826057145511835 
0 
-0.03962957049864779 
-0.05103156736206930 
0.1125403007862236 
0.05201849364836346 
-0.03478486305047144 
-0.4671604948682108 
-0.3675699888316788 
0 
0 
0 
0 
0 
0 
0 
0 
0 
0 
0 
0 
0 
0 
0 
0 
0 
0 
1.381827203889908 
