solver_type L2R_L2LOSS_SVC_DUAL
nr_class 2
label 0 1
nr_feature 479
bias -1.000000000000000
w
0.5871589026131925 
-1.004550706770243 
0 
0.7086825028096185 
0 
-0.08449420553370328 
1.232700363311810 
-0.5225560704402356 
-0.3759905212195997 
0 
0 
0 
0 
0 
-0.4114779101622504 
0.5833146341284571 
0.2400609790849510 
0.5895384035593636 
-0.4204463036180766 
0.9236465075134295 
0.06131925575755933 
0 
0 
0.3122522913210106 
0.05594311635053600 
0.08267398199185048 
0.1546946060920623 
0 
0.05499685760489066 
0 
0.004601388244528769 
0 
0 
0.1273492859158341 
-0.1423658621869433 
0.2255574884303587 
0.1000999154105585 
0 
0 
0 
-0.2946517827678089 
0.3203578016593313 
0.08415914477899784 
0.06379399262310968 
0.06152052153330795 
0.09694084307077284 
0.05523659323102972 
0 
-0.3080160084195463 
0 
-0.06050527148764449 
-0.08114852568115360 
-0.01223992396147855 
-0.3279458363702719 
-0.2249739579364722 
-0.1899764756863475 
-0.2010986727204903 
-0.1531089729538586 
-0.6332206406235900 
0 
0 
0.1342408754990979 
-0.03962992270851831 
-0.2777476003402739 
0 
0 
0.08179902720440956 
0 
0.009437784904788210 
0.01275013780578747 
0 
0 
0 
0.01527192756904348 
0 
0 
0.09446436053623786 
0.1301325068117762 
0.06074150099099232 
0 
0 
0 
0 
0 
0 
0 
0 
0 
0 
0 
0 
0 
0 
0 
0 
0 
0 
0 
0 
0 
-0.06545726214503846 
-0.4567176482224363 
0 
0.2974956123960996 
0 
-0.002821570240452413 
1.587997400003835 
-0.6871032203751646 
-0.5938923964741172 
0 
0 
0 
0.01360694699940882 
0 
-0.5438442852306997 
0.4741506012069295 
0.5175198485513645 
0.2109174635236225 
-0.2120237048411967 
0.4706855707605039 
-0.05070509631363185 
0 
0 
0.5440552543857227 
0.005472043425733972 
0.05120530749075682 
0.2549978547947654 
0 
0.1015497800260673 
0 
0.001486117763246878 
0.06262346965848390 
0 
0.08041267792079768 
-0.06244585869087500 
0.2044025920683882 
0.1154572951123300 
0 
0 
0 
0.06314344762902196 
0.3368109038678051 
0.01376406409772699 
0 
0.0002488658803867965 
-0.06108746860298452 
-0.03620670582364454 
0 
-0.2591439149719539 
0 
0.1288954536803002 
-0.05483864514033765 
0 
0.01998235281331948 
-0.07152398481536505 
-0.2073555451667294 
0.3739394637445235 
-0.02067695668829588 
-0.4982713357652778 
0 
-0.1091981448628823 
-0.5691108724646134 
-0.1829150862308521 
-0.4176117315053585 
0 
0 
-0.1493683173573976 
0 
-0.02294562242869248 
0 
0 
0 
0 
0.03793112044335072 
0 
0 
-0.01945490649461389 
0.06714551140271452 
0 
0 
0 
0 
0 
0 
0 
0 
0 
0 
0 
0 
0 
0 
0 
0 
0 
0 
0 
0 
0 
0 
-0.1411229598968321 
-0.06574648626762458 
0 
0.05478507555196664 
0 
-0.1252781686457984 
0.09461144090134610 
0.06057226616555701 
0.4288870082193599 
0 
0 
0 
0 
0 
-0.1174528222151302 
0.1610723780394246 
-0.1158332508947315 
0.02236086361072541 
-0.01144885044264071 
0.1833553575036873 
-0.03990713571758484 
0 
0 
-0.09860342481405662 
0.07986197024632168 
-0.1293165347956596 
0.1864027072026388 
0 
0.09455740913487738 
0 
-0.06559398672463136 
-0.1219224503375023 
0 
-0.1279105576629082 
-0.1905009178975731 
0.08635397201645487 
0.06863467101718931 
0 
0 
0 
0.02314967776346193 
0.1247180094341496 
0.2087393531797988 
0.05820429501780282 
0 
-0.07207847655637221 
-0.07963528250423190 
0 
-0.09975789673928756 
0 
0.1686500643680049 
0.02362895532514930 
0 
0.05084557867097321 
0.02255301850130987 
-0.1595635414876985 
0.2879335161651658 
0.03058381492391235 
-0.03648915724400661 
0 
0.0001739103443303294 
0.04871149076463267 
0.003586356442683309 
-0.2625326233315960 
0 
0 
0.1047318592156184 
0 
0.03758076626342322 
0 
0 
0 
0 
0.01520279961826393 
0 
0.01171359533613568 
0.0009292873786413379 
0.1085809374877308 
0.02930791588593107 
0 
0 
0 
0 
0 
0 
0 
0 
0 
0 
0 
0 
0 
0 
0 
0 
0 
0 
0 
0 
0 
0.2218633245729949 
0.02816113857674768 
-0.02878237796358721 
0.1698083746519173 
0 
-0.02523889855245225 
0.2499702896291372 
0.1129903198195697 
-0.02667132119030580 
0 
0 
0 
0 
-0.02878237796358721 
0.1166083002062483 
-0.004375647504990522 
0.02598106697986516 
0.03646788096204962 
-0.006665694154608465 
-0.01838213902885488 
0.1178268029426220 
0 
0 
-0.08469671913615055 
0.03855683942478841 
0.06528484638798863 
0.1253118178629889 
0 
0.04811308686919459 
0 
0.04097377254050104 
-0.06489506318809712 
0.02139195093566010 
-0.09243625083231245 
-0.2504444152640760 
0.06098385859918769 
-0.005717763744317254 
0 
0 
0 
-0.07360403335834581 
0.1600611601715732 
0.1473232325909245 
0.06669740545029976 
-0.03206889040766510 
-0.02408139398081343 
-0.2675056088595047 
0 
0.1032200942335723 
0 
0.06628433374060094 
0.08589168680628341 
0 
0.03097824437801929 
0.03284424330088444 
-0.03894235280538997 
-0.1908152259490278 
-0.06521249462195840 
-0.01128544821984114 
0 
0 
0.1982169205127589 
0 
0.08976104986345665 
0 
0 
0.02930527815976515 
0.01017518570863968 
-0.01879873930515317 
0.02541445238244100 
0 
0 
0 
-0.006259658356703854 
0 
0.02355583213662842 
-0.1289369702575310 
0.09875393232046599 
0 
0 
0 
0 
0 
0 
0 
0 
0 
0 
0 
0 
0 
0 
0 
0 
0 
0 
0 
0 
0 
0 
-0.01074445408210353 
0.1487986400251616 
-0.02048860226529322 
0.1625135902023539 
0 
-0.02357293275472439 
0.1429637227436454 
-0.06637101980863340 
0.2557199337788026 
0 
0 
0 
0 
-0.02048860226529322 
0.2723827659278131 
-0.05822866099712692 
0.06003017324440044 
-0.2071136358309273 
-0.04489250250115334 
-0.007768945160251772 
0.05318794716533097 
0 
0 
0.08678859454547319 
-0.1077776933296157 
-0.03400590003022109 
0.05278284002274697 
0 
-0.01269470753808829 
0 
0.02012534348210943 
0.05300598528100706 
0 
-0.1184168242050075 
-0.04983528665113800 
-0.007557715223061881 
0.01026047129404026 
0 
0 
0 
0.01767646026739824 
-0.06245485491188339 
0.1251378882825312 
-0.03803448793708012 
0.05673201407895189 
-0.02010871110978686 
0.009347188592826131 
0 
-0.02185789134248809 
0 
-0.06316970055777410 
0.03305142211603795 
0 
0.06073103525122980 
-0.05055540983558320 
-0.06332632663000369 
0.1692094768613225 
-0.09050699378192507 
0.2249202685730886 
0 
0 
0.06529899319260542 
0.02389401504562750 
-0.08824781701408270 
0 
0 
-0.1218136442517330 
0.02018102917298102 
0 
0.03565330115409879 
0 
0 
0 
0.1904691216170519 
0 
0.06341043844130376 
-0.03008766816299692 
0.04859594255677929 
0.01683595351052705 
